{"WidthLimit": 100, "bias": [[-0.003386945463716984, 0.005366194527596235, -0.0011811003787443042, 0.013893138617277145, -0.0014453978510573506, -0.008753526024520397, 0.0031780414283275604, -0.003206645604223013, -0.004076894838362932, -0.007196102291345596, 0.0067691560834646225, 0.002022865228354931, -0.0038099922239780426, -0.00457976758480072, -0.005665463395416737, 0.006543612107634544, -0.009668336249887943, 0.0019497380126267672, 0.00673446012660861, -0.005764062982052565], [0.043617695569992065, -0.0756797045469284, -0.3604474663734436, 0.010238188318908215, -0.010797779075801373, -0.12960664927959442, -0.021646132692694664, -0.004773160442709923, 0.014105289243161678, -0.1578671932220459, 0.012443238869309425, -0.005483357235789299, -0.005187592934817076, 0.019999459385871887, 0.07009251415729523, 0.19824771583080292, -0.10942433029413223, -0.5208280086517334, 0.003292794805020094, -0.14734618365764618], [0.03506157919764519, 0.0636456236243248, 0.1068544089794159, -0.022765694186091423, -0.3186791241168976, 0.17805427312850952, 0.023339465260505676, -0.16070665419101715, 0.03303353488445282, -0.05225897580385208, 0.0012771172914654016, 0.07912622392177582, -0.6567673683166504, -0.0278680007904768, 0.030356809496879578, 0.039707884192466736], [-0.09777667373418808, 0.0741209015250206, 0.02258673682808876, 0.13268715143203735, 0.022192208096385002, -0.02674419991672039, -0.03085334599018097]], "weights": [[[-0.1770014613866806, 0.1124149039387703, -0.49482765793800354, -0.06475477665662766, -0.15064416825771332, -0.45863041281700134, 0.5268090963363647, 0.33141645789146423, -0.46657830476760864, -0.2811213433742523, -0.5179641842842102, -0.4909997582435608, 0.15238159894943237, 0.20585492253303528, 0.41238880157470703, 0.3451330363750458, 0.5505995154380798, -0.46281641721725464, 0.08804412931203842, 0.3783504068851471], [0.5058704614639282, -0.6254533529281616, 0.03407228738069534, 0.4468517601490021, 0.2754185199737549, 0.04441780596971512, -0.22833603620529175, -0.24053233861923218, 0.5248810648918152, -0.08278792351484299, 0.563589870929718, 0.23419110476970673, -0.40665265917778015, -0.4217320382595062, 0.31661489605903625, -0.4632755219936371, -0.5423493385314941, 0.25197234749794006, -0.2515813410282135, -0.5307740569114685], [0.2312684804201126, 0.04298260435461998, 0.40708068013191223, 0.32295867800712585, -0.3241290748119354, -0.03884783759713173, 0.40030714869499207, 0.4871062934398651, -0.16808252036571503, 0.41520118713378906, -0.05924630165100098, 0.37738725543022156, 0.23127521574497223, 0.18915560841560364, -0.5311564207077026, -0.27066701650619507, 0.2209463268518448, 0.3033091127872467, -0.01031249389052391, 0.10712124407291412], [0.01751287467777729, -0.9601441621780396, -0.43906694650650024, 0.0947517529129982, 0.2654959559440613, 0.02237541787326336, 0.020836975425481796, -0.1768382042646408, -2.3933873176574707, 1.9204059839248657, -0.1671135276556015, 0.21582402288913727, -0.02822437696158886, 0.2257310152053833, 0.4570898115634918, -0.1256142258644104, -0.3819977939128876, 0.3076084554195404, -0.02416626550257206, 0.4029078483581543], [0.7135553359985352, -0.1252116560935974, 1.2629808187484741, 0.9495521187782288, 1.2601984739303589, 1.3807216882705688, -0.8798125982284546, -0.8984091281890869, 1.2940853834152222, 0.7207277417182922, 1.0366623401641846, 1.089677333831787, -0.8507469296455383, -0.9046149253845215, -1.175927758216858, -0.6775519251823425, -1.3555773496627808, 1.3648014068603516, -0.4413435161113739, -1.2388205528259277], [-1.3706834316253662, 0.06859049201011658, -1.0435150861740112, -1.0594052076339722, -1.2581526041030884, -1.1696686744689941, 0.8575021028518677, 1.0825670957565308, 0.8634811639785767, 0.08764725923538208, -1.1941536664962769, -0.8141480088233948, 0.9245388507843018, 1.2868504524230957, 0.5913577079772949, 1.1057686805725098, 0.49302512407302856, -0.6489344239234924, 1.2539459466934204, 0.9084053635597229], [-0.30459198355674744, -0.09845533221960068, -0.16506172716617584, -0.30389830470085144, 0.25678324699401855, -0.09273941069841385, -0.19878704845905304, -0.4490683972835541, 0.10625521093606949, -0.4091450273990631, 0.05499834567308426, -0.1484302133321762, -0.024419104680418968, -0.3134906589984894, 0.4266526401042938, 0.1443994641304016, -0.19034668803215027, 0.015194498933851719, 0.2781619727611542, 0.18475806713104248], [0.09197544306516647, 0.683388888835907, 0.29990437626838684, -0.24466757476329803, -0.023756520822644234, 0.150545135140419, -0.05763427913188934, 0.20688220858573914, 1.8464393615722656, -1.5549672842025757, -0.12286381423473358, -0.15167219936847687, -0.025188112631440163, -0.06894657015800476, -0.27837780117988586, -0.08191806823015213, 0.31840965151786804, -0.1859770566225052, 0.17712223529815674, -0.3948984742164612], [0.023070376366376877, -0.012345151975750923, 0.031223682686686516, 0.06610472500324249, 0.11359202861785889, 0.022282594814896584, 0.1311047524213791, 0.08531669527292252, 0.00892719067633152, 0.004536764230579138, -0.10689862072467804, -0.103230319917202, -0.10701071470975876, -0.11377089470624924, 0.031208887696266174, 0.026376551017165184, 0.026605134829878807, 0.017623864114284515, 0.013768335804343224, 0.05618211627006531], [-0.11384879797697067, 0.028256595134735107, 0.11312418431043625, -0.045012567192316055, 0.002770853228867054, 0.05588485300540924, -0.13729505240917206, 0.1404259204864502, -0.001735784811899066, 0.04953161999583244, -0.0068140048533678055, -0.13912038505077362, -0.21507993340492249, 0.07610415667295456, 0.045403629541397095, -0.11268413066864014, -0.008471851237118244, 0.15421797335147858, 0.07521507143974304, 0.061235424131155014]], [[0.6175801157951355, -0.7536259293556213, -0.8059067726135254, -0.7318209409713745, -0.17049384117126465, -0.2602483630180359, 0.6319844722747803, -0.9790682196617126, -0.5126423239707947, -0.22313731908798218, 0.2927893400192261, 0.4118841886520386, -0.8484900593757629, -0.06257377564907074, 0.10005762428045273, -0.6195574998855591, 0.4596024453639984, 0.8535237312316895, -0.07947135716676712, 0.0017615808174014091], [-0.3299180567264557, 0.22854553163051605, -0.9164895415306091, -0.3124631941318512, -0.058215491473674774, -0.23595614731311798, -0.07487086951732635, -0.2539609968662262, -0.059414248913526535, 1.0061951875686646, -0.3467881977558136, -0.2519679665565491, 0.11438167095184326, 0.021670052781701088, 0.03794302046298981, 0.38475745916366577, -0.4400652050971985, -1.6241101026535034, -0.17740537226200104, 0.24601925909519196], [0.4255653917789459, -0.2113037407398224, -1.296077013015747, -0.4719879925251007, 0.5059540867805481, -0.6077102422714233, 0.44651514291763306, -0.03724239394068718, -0.4723004996776581, 0.8301387429237366, 0.11681683361530304, 0.6967025995254517, -0.31299352645874023, 0.3804037868976593, 0.07625532150268555, -0.09464531391859055, 0.15658369660377502, -0.797852635383606, -0.6930438280105591, 0.7798454165458679], [0.6203828454017639, -0.4369666576385498, -0.22271206974983215, -0.1934175193309784, 0.3948672413825989, -0.7677221298217773, 0.030829481780529022, -0.5011603832244873, 0.07741591334342957, -0.5380310416221619, 0.3167959153652191, 0.567817747592926, -0.5616366267204285, 0.325277715921402, -0.11897806078195572, -1.1998536586761475, 0.3471512496471405, 1.2257994413375854, -0.3396074175834656, -0.1633799821138382], [0.2381826490163803, -0.24345748126506805, -0.1610894352197647, -0.6622949242591858, 0.49087831377983093, 0.15279708802700043, 0.6305388808250427, -0.4940478503704071, -0.6637003421783447, -0.11691441386938095, 0.36244702339172363, 0.21063333749771118, -0.3624032437801361, -0.759675145149231, -0.7203172445297241, 1.3748412132263184, 0.5716861486434937, -0.5945929288864136, -0.773814857006073, 0.2704947292804718], [0.29307878017425537, -0.3952077329158783, -0.4781492054462433, -0.6005419492721558, 0.4136677384376526, -0.09032424539327621, 0.6396088004112244, -0.37299618124961853, -0.3956868350505829, 0.39895299077033997, 0.27491873502731323, 0.6500780582427979, -0.1836051195859909, -0.2514345347881317, -0.7120882868766785, 0.6798413395881653, -0.10802669823169708, -0.6196580529212952, -0.4049092233181, 0.6701881885528564], [-0.05226743221282959, 0.12088427692651749, -0.010314919985830784, -0.2093910574913025, -0.15664182603359222, -0.8643184304237366, 0.0342305451631546, 0.2183629423379898, 0.45791956782341003, -0.01988363079726696, -0.2740653157234192, -0.4176846444606781, 0.2664823830127716, 0.759975016117096, 0.4082215130329132, -0.7645270228385925, -0.6149027347564697, 1.1591684818267822, 0.39871448278427124, -0.3948346972465515], [-0.3346072733402252, -0.49584054946899414, -1.1978087425231934, 0.21729221940040588, -0.28895995020866394, -0.7223479747772217, -0.0896819606423378, 0.0415683388710022, 0.4675334692001343, -0.25167784094810486, -0.3187457323074341, -0.1794525682926178, -0.020599056035280228, 0.9112261533737183, 0.5585582256317139, -1.4143750667572021, -0.6687925457954407, 1.2479597330093384, 0.037977684289216995, -0.40926381945610046], [0.19392575323581696, -0.2813444435596466, 0.9447296857833862, -0.21351182460784912, -0.062140803784132004, -0.37875843048095703, -0.19062335789203644, 0.05664908140897751, 0.04217265546321869, 0.2911389172077179, -0.2302183359861374, -0.1387694627046585, 0.28763410449028015, -0.3062540292739868, 0.18061788380146027, -0.9594136476516724, -0.31422659754753113, 0.01171172596514225, 0.021734772250056267, -1.1387027502059937], [-0.3281354308128357, -0.018634557723999023, -0.7000259160995483, -0.24849410355091095, -0.13079668581485748, -0.792323112487793, -0.08946792036294937, -0.31280168890953064, 0.5181507468223572, -0.5825339555740356, -0.7905279397964478, -0.9341744780540466, -0.7522684335708618, -0.3927415609359741, -0.5438657999038696, 1.025062918663025, 0.6274075508117676, 0.6466687321662903, 0.009473927319049835, 0.8153916001319885], [0.6883600354194641, -0.6271945834159851, 0.45006120204925537, -0.6626062989234924, 0.8876519203186035, 0.1350814700126648, 0.6811448335647583, -0.9919157028198242, -0.19157133996486664, -0.5172330141067505, 0.6690470576286316, 0.8440969586372375, -0.45467594265937805, -0.37974050641059875, -0.4436696469783783, 0.2053776979446411, 0.31381669640541077, 0.593673825263977, -0.8612934350967407, -0.808207094669342], [0.19994719326496124, -0.22769494354724884, -1.4088436365127563, -0.1889299899339676, 0.39343854784965515, -1.190731406211853, 0.5211778283119202, -0.127913236618042, 0.03942807763814926, -0.26439741253852844, 0.3238976001739502, 0.2832378149032593, -0.7093395590782166, 0.2377522885799408, -0.4268959164619446, -0.3987574279308319, 0.17482495307922363, 0.5671883821487427, -0.5462338328361511, 0.30760297179222107], [-0.18348990380764008, -0.1072465106844902, -0.7642788290977478, -0.10441252589225769, -0.3461974859237671, 0.01721344143152237, -0.046120744198560715, 0.07634971290826797, 0.038737066090106964, 0.35687485337257385, -0.14755772054195404, -0.38458365201950073, 0.3322910666465759, 0.2539503276348114, 0.32653599977493286, 0.0944022610783577, -0.06563480943441391, -0.3838397264480591, 0.2745116651058197, 0.5084818601608276], [-0.10243774950504303, 0.1429816633462906, -0.7720130085945129, 0.43381422758102417, -0.6349875330924988, -1.2960301637649536, -0.2884705662727356, 0.31157079339027405, 0.6517985463142395, 0.16654540598392487, -0.6313679814338684, -0.7670193314552307, 0.1671856790781021, 0.876274585723877, 0.5889520645141602, -0.5344412326812744, -0.2975580394268036, 1.152690052986145, 0.46948984265327454, 0.35075029730796814], [-0.14865775406360626, -0.22770409286022186, 1.3457239866256714, 0.17736902832984924, -0.04778892919421196, 0.6563066244125366, -0.27593302726745605, -0.19657622277736664, 0.07756032049655914, -0.7582855820655823, 0.11880041658878326, 0.17402984201908112, -0.3502863049507141, 0.02794390544295311, 0.010771672241389751, -0.26207733154296875, 0.5451170206069946, 0.7113462686538696, 0.05729170888662338, -0.8532946705818176], [-0.08844855427742004, 0.31970319151878357, 0.2647306025028229, 0.5316468477249146, -0.2097926288843155, -0.10435615479946136, -0.06626465916633606, 0.7455681562423706, 0.1255166381597519, 0.17268240451812744, -0.14093561470508575, -0.5952062606811523, 0.1235879510641098, -0.09927646070718765, -0.23571476340293884, 1.0671496391296387, -0.5173602104187012, -0.5681329965591431, 0.26158732175827026, 0.36939114332199097], [-0.3666324019432068, 0.3192528188228607, -1.2706692218780518, 0.5379937291145325, -0.5744404792785645, 0.29707056283950806, 0.005111166276037693, 0.17535844445228577, 0.6431308388710022, 0.7644446492195129, 0.09420641511678696, 0.22998562455177307, 0.3189180791378021, -0.07811528444290161, 0.7352004647254944, 0.4003807306289673, 0.23031209409236908, -1.0907580852508545, 0.43666234612464905, 0.5058728456497192], [0.3243260383605957, -0.2787625789642334, -0.1059931144118309, -0.3964938521385193, 0.023332402110099792, -0.342473566532135, 0.5591289401054382, -0.20120090246200562, -0.2455868124961853, -0.5937141180038452, 0.5439506769180298, -0.18880809843540192, -0.11113981902599335, -0.3189106285572052, -0.003610390704125166, -0.2711013853549957, -0.11379982531070709, 0.6899246573448181, -0.07077164202928543, -0.004589641001075506], [0.020896222442388535, 0.09961628168821335, 1.0773978233337402, -0.030423281714320183, 0.020768800750374794, -0.2857230007648468, -0.42075327038764954, 0.14211013913154602, -0.0068265474401414394, -0.16186004877090454, -0.12867188453674316, -0.250417023897171, -0.1635841727256775, 0.1063680425286293, 0.13022300601005554, 0.018111227080225945, -0.23214221000671387, 0.2480027675628662, 0.06679514050483704, -0.754459798336029], [-0.2508735954761505, 0.09005151689052582, -1.0150511264801025, 0.5552868843078613, 0.11342191696166992, 0.32642224431037903, -0.09277871996164322, -0.070902980864048, 0.5207632780075073, 0.4630277454853058, -0.2809736430644989, -0.21601855754852295, -0.17460328340530396, -0.13190369307994843, 0.4028354287147522, 0.4550352990627289, 0.2500630021095276, -0.04255136474967003, 0.720265805721283, 0.8607168197631836]], [[0.5515047907829285, -0.5033622980117798, 0.5146844387054443, -0.6396225690841675, -0.38121894001960754, 0.3256354331970215, 0.4441078007221222, -0.8011003732681274, -0.6441127061843872, 0.5254817008972168, -0.34504592418670654, -0.22790785133838654, 0.2295321226119995, 0.4567866027355194, -0.5169430375099182, 0.5539738535881042], [-0.17666955292224884, 0.31392034888267517, -0.9056811928749084, -0.026055173948407173, -0.44050005078315735, -0.14731714129447937, -0.07695575803518295, 1.3190555572509766, -0.21632693707942963, 0.10751741379499435, 0.07462131232023239, 0.22784481942653656, 1.3659089803695679, -0.25014209747314453, 0.3256784677505493, -0.2540754973888397], [0.2546371519565582, 0.18395577371120453, -0.012097309343516827, 0.25902506709098816, 0.45502588152885437, -0.4294772446155548, 0.4044915437698364, 0.1142607256770134, -0.20123203098773956, 0.21630343794822693, 0.06395407766103745, 0.31055352091789246, -1.139569878578186, -0.053142040967941284, 0.17779895663261414, -0.04398312419652939], [-0.6160398125648499, 0.09655583649873734, -0.5584055781364441, 0.2965063452720642, -0.038561806082725525, 0.6791455149650574, -0.9456470608711243, -0.16146910190582275, 0.34606295824050903, -0.9595271944999695, -0.2616947889328003, 0.2965424954891205, -1.4697376489639282, -0.39415833353996277, 1.3525850772857666, -0.20566625893115997], [-0.2402614951133728, -0.3287435472011566, -0.42272672057151794, -0.11668068915605545, 0.039104584604501724, -0.28529036045074463, 0.21262268722057343, 0.12650054693222046, 0.06062062084674835, 0.4063522219657898, 0.008997469209134579, -0.0533657968044281, -0.29802727699279785, 0.33704444766044617, -0.19991078972816467, -0.18782223761081696], [0.0399639718234539, 0.37385231256484985, -0.11258874833583832, -0.42139554023742676, 0.32276567816734314, 0.1615602672100067, -0.0120546268299222, 0.6615958213806152, 0.4478287398815155, -0.3030942380428314, -0.5689537525177002, -0.19690921902656555, 0.09520597010850906, -0.26986053586006165, 0.15098252892494202, -0.30651137232780457], [0.5398449301719666, -0.4096889793872833, -0.8159084320068359, 0.4262826442718506, -0.3741293251514435, 0.09501264244318008, 0.3987830877304077, 0.8808837532997131, -0.22353218495845795, 0.2950006127357483, -0.5174729228019714, -0.08285052329301834, 0.662431538105011, 0.3219034969806671, -0.5348172783851624, -0.21867099404335022], [-0.17721910774707794, 0.6913020610809326, 0.4653448164463043, -0.7012953758239746, -0.25173839926719666, -0.6476715803146362, -0.30421343445777893, 0.9851675033569336, 0.07878310233354568, 0.38265618681907654, -0.22690606117248535, -2.253777503967285, -0.6381468772888184, -0.24402852356433868, 0.8774728775024414, -0.2429381161928177], [0.37482398748397827, -0.6231571435928345, 0.841610312461853, 0.08610295504331589, 0.17388354241847992, -0.1646060347557068, -0.21455949544906616, -0.035871610045433044, -0.8014211058616638, -0.2864108085632324, 0.2151741236448288, -0.024807242676615715, 1.006551742553711, -0.091831274330616, 0.6043251156806946, 0.33290788531303406], [0.11143971234560013, -0.19262206554412842, -0.561581552028656, 0.3194962739944458, -0.48717498779296875, -0.08449285477399826, -0.3677409291267395, 0.6980577707290649, -0.3020328879356384, -0.33443450927734375, 0.10371080785989761, -0.11273124814033508, 1.3048830032348633, -0.1657232791185379, -0.022672230377793312, 0.12291886657476425], [-0.11336158215999603, -0.13537277281284332, 0.2970256507396698, -0.13216015696525574, 0.23306800425052643, 0.5765799283981323, -0.06336383521556854, -0.5048797130584717, 0.07372132688760757, 0.12412098050117493, 0.28394371271133423, -0.02253500372171402, -0.849541425704956, 0.5787890553474426, -0.13495385646820068, 0.06404000520706177], [0.37593480944633484, -0.9543121457099915, -0.4975161850452423, -0.4573501944541931, -0.6534578800201416, 0.308427631855011, 0.6899515986442566, -0.26008087396621704, -0.7120454907417297, 0.07143105566501617, 0.06317070871591568, 1.5335229635238647, -0.41313841938972473, 0.367495596408844, -0.27753689885139465, 0.06076979637145996], [0.004363291896879673, -0.2449047565460205, -0.3959841728210449, 0.10631639510393143, -0.6212376952171326, -1.0696266889572144, 0.08132006227970123, -0.04117145389318466, 0.5817107558250427, 0.4664924740791321, -0.38133880496025085, -0.23240183293819427, 0.45381516218185425, -0.531319260597229, 0.194620743393898, -0.33785149455070496], [0.9054855704307556, 0.5578356385231018, -0.7130579352378845, 0.4353644549846649, -0.24468307197093964, 0.07996898889541626, -0.07951119542121887, -0.5047035217285156, 0.05795153230428696, 0.3842354714870453, 0.41951265931129456, 0.9578173756599426, -1.2290139198303223, -0.019675305113196373, 0.6008257269859314, 0.5071069598197937], [0.23999091982841492, 0.1188865676522255, 0.28335335850715637, 0.712029755115509, -0.21731022000312805, -0.17661362886428833, -0.49179041385650635, -0.7509557008743286, 0.1679924577474594, 0.7310613989830017, 0.025991734117269516, 1.0167187452316284, 1.1400872468948364, 0.29337769746780396, 0.5202782154083252, 0.6600037217140198], [-0.04170837253332138, -0.1521117389202118, -0.019773786887526512, -0.5749294757843018, -0.22716400027275085, -0.24332211911678314, -0.003893326036632061, 0.11149721592664719, 0.28884172439575195, 0.16563689708709717, -0.7172823548316956, 0.30895107984542847, -1.1777584552764893, -0.0748690664768219, -0.27583736181259155, -0.44663771986961365], [-0.4526048004627228, -0.017391080036759377, 0.06510994583368301, 0.3132637143135071, 0.31344881653785706, 0.40731102228164673, -0.07390344142913818, 0.9144056439399719, 0.14461074769496918, 0.341858834028244, 0.18150652945041656, 0.6192997694015503, 1.6262714862823486, 0.3620797097682953, -0.5568230748176575, 0.04639297351241112], [0.20313619077205658, -0.22337064146995544, 0.32984763383865356, -0.3436260521411896, -0.28614678978919983, -0.0044053406454622746, -0.12361360341310501, -0.3664397895336151, 0.2613803446292877, 0.09492873400449753, 0.5682249665260315, 0.0021860627457499504, -0.07742878049612045, 0.06893107295036316, -0.029126739129424095, 0.25056126713752747], [-1.1019500494003296, -0.3291128873825073, 0.5081638097763062, 0.7092036604881287, 0.5391183495521545, -0.3609532117843628, -1.1506903171539307, -0.7323428392410278, 0.26412835717201233, -0.7678365111351013, 0.3244912028312683, 0.4986971914768219, -0.40989989042282104, -0.9739813804626465, 1.1407145261764526, 0.02060929499566555], [0.5823898911476135, 0.22076967358589172, 0.14198139309883118, 0.08252093940973282, 0.1619691103696823, -0.06479033082723618, 0.4344951808452606, -0.10068454593420029, -0.011301868595182896, 0.40606221556663513, 0.07754122465848923, 0.13043533265590668, 0.07120935618877411, 0.25874483585357666, 0.47453469038009644, -0.16343486309051514]], [[0.5608595013618469, -0.9931299090385437, -0.2344404011964798, -1.1972545385360718, 0.4339563846588135, 0.06086621433496475, 0.05888869985938072], [-0.01682654209434986, -0.47880497574806213, 0.0077659972012043, 0.027214616537094116, 0.8804490566253662, 0.5948977470397949, 0.5945534706115723], [0.2580224573612213, -0.574975848197937, -0.03395608440041542, -0.062294211238622665, -0.25063011050224304, -7.743197784293443e-05, 0.0012593278661370277], [1.8701887130737305, 0.788809061050415, 0.3305167257785797, 0.22559183835983276, 0.770891010761261, -0.46709129214286804, -0.46416229009628296], [1.0776233673095703, -0.35040283203125, 0.059663087129592896, -0.13568942248821259, 0.13044118881225586, 0.007057980168610811, 0.00854524690657854], [0.14023521542549133, 0.3049164414405823, -0.03048287332057953, -0.49431270360946655, 0.3371206223964691, 0.004027686547487974, 0.0039041279815137386], [0.5529619455337524, -0.8116169571876526, -0.6013489365577698, -0.6336385011672974, -0.19037854671478271, -0.3607851564884186, -0.3668387234210968], [0.9063660502433777, 1.4335291385650635, -0.21925921738147736, 0.0025813416577875614, -0.040321484208106995, 0.017205480486154556, 0.016532916575670242], [-1.0097630023956299, -0.2858715355396271, 0.052029676735401154, -0.22431999444961548, 1.2117390632629395, -0.5934785604476929, -0.5912922620773315], [0.5127414464950562, -0.6560527086257935, -0.08734001219272614, 1.2201124429702759, 0.4379560351371765, 0.22794437408447266, 0.22673751413822174], [-0.6795334815979004, 0.5078657269477844, 0.38459160923957825, 0.18039044737815857, 0.05088953673839569, 0.043365973979234695, 0.0441056452691555], [0.034443147480487823, -0.4520907998085022, 0.026155035942792892, 0.27195751667022705, -0.05448676645755768, 0.008205990307033062, 0.008742568083107471], [-1.2547303438186646, -0.6048620939254761, -0.029553677886724472, 0.10750016570091248, -0.0728742852807045, 0.0024841080885380507, 0.002755285706371069], [-0.008121048100292683, 0.06217093765735626, -0.2484370768070221, 0.9249725341796875, -0.3229145407676697, -0.0751253291964531, -0.07787948846817017], [0.33753642439842224, -0.940944254398346, 0.7868834733963013, 0.03076404146850109, -0.8161916732788086, -0.1335541307926178, -0.12482349574565887], [-0.45745527744293213, 1.2988847494125366, -0.7399731874465942, -0.12037549912929535, 0.08946345746517181, 0.04523962363600731, 0.042166829109191895]]]}