{"WidthLimit": 100, "bias": [[-0.00219959719106555, 0.012479099445044994, -0.005494617857038975, -0.028798455372452736, -0.04801497608423233, -0.002999837975949049, -0.010825442150235176, -0.2874802350997925, -0.005030060186982155, 0.013070547953248024, 0.009111444465816021, -0.017485499382019043, 0.0006846841424703598, 0.01970553584396839, -0.013907749205827713, -0.017535565420985222, 0.041202060878276825, -0.020601961761713028, -0.37961292266845703, 0.044505879282951355], [0.02927006594836712, -0.035009752959012985, -0.13390593230724335, 0.2474028617143631, 0.0431869737803936, 0.05166104435920715, 0.08330030739307404, -0.6998630166053772, 0.031414683908224106, 0.056685030460357666, -0.06322174519300461, -0.19904592633247375, 0.0361541323363781, 0.09770319610834122, -0.027207842096686363, 0.042571790516376495], [-0.6144694089889526, 0.22009854018688202, -0.034114062786102295, -0.024271883070468903, -0.08098484575748444, 0.006598197855055332, 0.0026683523319661617]], "weights": [[[-0.37797820568084717, -0.3771257996559143, 0.502165675163269, -0.3784928321838379, -0.42264223098754883, 0.3671136796474457, 0.2790045142173767, -0.058868084102869034, -0.24658304452896118, -0.5147821307182312, -0.2977079153060913, -0.4509379267692566, -0.40883228182792664, -0.49704018235206604, -0.47197550535202026, -0.07665944844484329, 0.3540858030319214, -0.1525678187608719, -0.19926734268665314, -0.368488073348999], [0.09734861552715302, 0.46465104818344116, -0.20668448507785797, 0.5068601369857788, 0.057344306260347366, -0.6791605949401855, -0.5857864618301392, 1.634461522102356, 0.3306911885738373, -0.06882545351982117, 0.29017218947410583, 0.8961791396141052, 0.7638230919837952, 0.3308342695236206, 0.0683361291885376, 0.34468889236450195, -0.3509367108345032, 0.5047420859336853, -1.2965469360351562, -0.05023673549294472], [-0.047154538333415985, -0.6119399070739746, -0.08580578863620758, 0.1692522168159485, -0.19190171360969543, -0.137258842587471, 0.2079666554927826, -1.1933543682098389, -0.3101117014884949, 0.1500806361436844, -0.14571423828601837, 0.2225441336631775, 0.029983121901750565, 0.05581480264663696, 0.02813706360757351, 0.3076033294200897, 0.01376531645655632, -0.08943052589893341, -2.137840747833252, 0.5256773829460144], [0.37961143255233765, -0.26525288820266724, 0.17480701208114624, 0.2299831509590149, 0.411030113697052, -0.23543190956115723, 0.19747796654701233, 1.9126741886138916, 0.11247298121452332, -0.021247802302241325, -0.1245705783367157, -0.5837082266807556, -0.01817706786096096, -0.306752473115921, 0.43312206864356995, 0.2748294472694397, -1.1622610092163086, 0.28373950719833374, 0.5269582271575928, -0.5613188147544861], [1.2882647514343262, 1.3346751928329468, -1.359568476676941, 1.2207432985305786, 1.0501015186309814, -0.9025887250900269, -0.8003597855567932, 0.19508126378059387, 1.0063658952713013, 1.4437830448150635, 1.0932120084762573, 1.2149462699890137, 1.179756999015808, 1.575363039970398, 1.3063101768493652, 0.6820117831230164, -1.1803157329559326, 0.43241167068481445, 0.5252186059951782, 1.057451605796814], [-1.2576543092727661, -1.064078450202942, 1.2231900691986084, -0.5936973094940186, -1.4586341381072998, 1.647445559501648, 1.4911648035049438, 1.0644053220748901, -1.2649242877960205, -1.2931369543075562, -0.7301737666130066, -0.6241344213485718, -0.8698583841323853, -1.1886682510375977, -1.1163036823272705, -1.6446655988693237, 0.2179488092660904, -1.5851311683654785, -1.6439933776855469, -0.487535297870636], [-0.227076917886734, 0.39071372151374817, 0.09965793788433075, -0.04864070191979408, 0.11522314697504044, 0.18031784892082214, -0.22420544922351837, 0.9028410911560059, 0.33525049686431885, 0.018968965858221054, 0.12921807169914246, -0.028788171708583832, -0.10083714872598648, 0.021282389760017395, 0.07227242738008499, -0.28626933693885803, 0.013077110052108765, 0.21017834544181824, 1.6600079536437988, -0.31639567017555237], [-0.23403514921665192, 0.10667509585618973, -0.06779863685369492, -0.15124675631523132, -0.3359866142272949, 0.10955534130334854, 0.03195575624704361, -1.4873384237289429, -0.13331261277198792, -0.01799919456243515, 0.38677889108657837, 0.40053290128707886, 0.07170547544956207, 0.2765052020549774, -0.2969595789909363, -0.18581674993038177, 0.9703969955444336, -0.13278338313102722, -0.41317084431648254, 0.36116430163383484], [-0.028468111529946327, -0.05703495815396309, -0.08112086355686188, -0.0907534584403038, -0.011584611609578133, 0.024177612736821175, 0.0033226313535124063, 0.03285903111100197, -0.02472316101193428, -0.05343802645802498, -0.005213403142988682, 0.030613834038376808, 0.06393246352672577, 0.033400312066078186, 0.008220961317420006, -0.04845253378152847, -0.032844752073287964, 0.11261970549821854, -0.0249054916203022, -0.07792854309082031], [0.0953417420387268, 0.07693887501955032, 0.07552054524421692, 0.06736130267381668, -0.04169965907931328, -0.041735123842954636, 0.0014457106590270996, 0.007119116839021444, -0.1873192936182022, -0.020182963460683823, 0.07103133946657181, -0.07299446314573288, 0.07142406702041626, -0.07875019311904907, 0.10074926167726517, 0.10618048906326294, 0.0734068974852562, 0.0005210287636145949, -0.01789199933409691, 0.08716540783643723]], [[0.4611416459083557, 0.2504945695400238, 0.8792639970779419, -0.372871071100235, -0.31230369210243225, -0.12561440467834473, -0.630553126335144, -0.10586819052696228, 0.3107107877731323, -0.5007652044296265, -0.04950683191418648, 0.8347933292388916, -0.3866908550262451, 0.5918326377868652, 0.4973304867744446, 0.2654880881309509], [0.8004676103591919, 0.7970560193061829, -1.0837137699127197, -0.33212172985076904, -0.47942185401916504, -1.5775253772735596, 0.005953400861471891, -0.8945574760437012, 0.87677001953125, -0.9170928597450256, -0.749164879322052, -0.8816245794296265, -0.9470081329345703, -0.00751919811591506, 0.11821336299180984, 0.31686297059059143], [-0.6535434126853943, -0.18760697543621063, -0.976545512676239, -0.07280708104372025, 0.6100583672523499, 0.2765272557735443, 0.47429051995277405, -0.17631851136684418, -0.5062017440795898, 0.9216442108154297, 0.7412450313568115, -0.9819915294647217, 0.6591485738754272, -0.41249409317970276, -0.6645504832267761, -0.36688995361328125], [0.48335644602775574, -0.09398408979177475, -0.4399217665195465, 0.17918016016483307, -0.6442021131515503, -0.29961588978767395, -0.26025891304016113, 1.0164591073989868, 0.06103306636214256, -0.3799581527709961, 0.263881653547287, -0.8431742191314697, -0.2687821090221405, 0.6080008745193481, 0.1685958355665207, 0.846232533454895], [0.4004436731338501, 0.1894475668668747, 0.15399722754955292, -0.6817991733551025, -0.4706009328365326, -0.241336852312088, -0.5371310114860535, 0.2953179180622101, -0.052874401211738586, -0.3634446859359741, 0.35378679633140564, 1.721361756324768, -0.03926115483045578, 0.4310753047466278, 0.016983242705464363, -0.058113791048526764], [-1.528967261314392, 0.02633725479245186, -0.10716307908296585, -0.38296547532081604, 1.2744194269180298, 0.2829124927520752, -0.15917383134365082, 0.23919591307640076, -1.1063634157180786, 0.9148815274238586, 0.3226134479045868, 0.6875132322311401, 1.2753984928131104, -0.7033288478851318, -0.9082518815994263, 0.8779360055923462], [-0.2412324845790863, -0.2698972821235657, 0.5980497598648071, -0.1344870924949646, 0.291625052690506, 0.5861168503761292, -0.08660290390253067, -0.07364390790462494, -0.6364004611968994, 0.9848967790603638, 0.29424574971199036, 0.612173318862915, 0.3129611015319824, -0.5489035248756409, -0.13620565831661224, 0.5504945516586304], [-0.2996189296245575, -0.4913776218891144, -1.031159520149231, 0.18335647881031036, -0.07858986407518387, -0.4499343931674957, -0.19421498477458954, 0.9468513131141663, -0.03830543905496597, -0.002992429072037339, -0.4038863480091095, 0.34515711665153503, 0.06619779765605927, 0.3699284791946411, -0.3627588152885437, 0.058946624398231506], [0.562097430229187, -0.0015542920446023345, 0.6252167820930481, -0.7675979137420654, -0.3627413511276245, -0.27539482712745667, 0.04783231019973755, -0.22231179475784302, 0.20314738154411316, -0.4524405300617218, 0.3044652044773102, 0.43914735317230225, -0.36065971851348877, 0.5989876985549927, 0.010339216329157352, -0.6756470799446106], [0.07856804877519608, 0.23772601783275604, 0.8401085734367371, -1.0153635740280151, 0.036053817719221115, -0.054308269172906876, -0.8539400696754456, -0.22705912590026855, -0.1351974904537201, -0.5222145915031433, -0.101795494556427, 1.8379757404327393, -0.47799599170684814, 0.5864716172218323, 0.2927447259426117, 0.4797809422016144], [-0.21057753264904022, 0.19393563270568848, -0.4207773506641388, -0.10427697747945786, 0.07096288353204727, -0.7684614658355713, 0.13504436612129211, -0.255340576171875, -0.11113977432250977, 0.12162768840789795, -0.3202493488788605, -0.3679601848125458, -0.2792223393917084, 0.1590588539838791, -0.1701137125492096, 0.3562502861022949], [0.0362936370074749, 0.6601914763450623, -0.3035275638103485, 0.9038878679275513, -0.669959545135498, 0.1520106941461563, 0.25561589002609253, 0.07668939232826233, 0.5266301035881042, -0.11443214118480682, -0.11749652028083801, -1.1642630100250244, -0.39358779788017273, 0.4956206977367401, 0.4808725416660309, 0.21977566182613373], [0.04440673440694809, 0.6527060866355896, -0.7848604917526245, 0.1840405911207199, -0.7476198077201843, -0.0899147242307663, 0.18529470264911652, 0.012421512976288795, 0.31935036182403564, -0.39734289050102234, -0.033068783581256866, -1.3243095874786377, -0.6335364580154419, 0.46030309796333313, 0.4353926479816437, 0.1823728084564209], [0.7455916404724121, 1.5083638429641724, -0.5206345319747925, 1.1336884498596191, -0.8000360131263733, -1.2301050424575806, -0.926385760307312, -0.8062451481819153, 1.1047067642211914, -1.6256049871444702, -2.0133814811706543, -0.3862329423427582, -1.9476977586746216, 1.5027623176574707, 1.5467158555984497, 1.219069480895996], [0.8539214134216309, -0.35426485538482666, 1.0405274629592896, -0.8688799142837524, -0.19780628383159637, -0.42635515332221985, -0.3385297656059265, 0.2590322494506836, -0.45595648884773254, -0.6216418147087097, 0.3820854425430298, 1.5873335599899292, -0.27010127902030945, 0.6119189858436584, 0.42517152428627014, 0.25552523136138916], [0.37653669714927673, 0.059437550604343414, 0.6758487224578857, 0.2437962293624878, -0.689973771572113, 0.7301329374313354, 0.03392111137509346, 0.5187227129936218, 0.6066641211509705, -0.2316141277551651, 0.085375115275383, 1.3041473627090454, -0.1212017759680748, 0.6515916585922241, 0.5557777285575867, -1.1645042896270752], [-0.5446243286132812, 0.9638669490814209, -0.08750791102647781, 0.5194090008735657, 0.5047977566719055, 0.3052854835987091, 0.1150440201163292, -0.5396267175674438, 0.903199315071106, 0.3264490067958832, -0.7564407587051392, 0.08863037079572678, -0.40190696716308594, -0.34066319465637207, -0.33945995569229126, -0.7829524874687195], [0.48661375045776367, -0.27360445261001587, -0.06422591209411621, -0.542162299156189, -0.017364729195833206, 0.025382181629538536, 0.07866006344556808, -0.057304009795188904, 0.6518582701683044, -0.27434206008911133, 0.47943004965782166, 0.252500057220459, -0.024612748995423317, 0.5039882659912109, -0.553824245929718, -1.0815445184707642], [-0.18735170364379883, 0.881362795829773, -0.5292876362800598, -0.8590018153190613, 0.22847607731819153, -0.38617271184921265, -0.14076551795005798, -1.3530720472335815, 0.15962713956832886, 0.19373264908790588, -0.09167885035276413, -0.7320122122764587, -0.11109980940818787, 0.11409451812505722, -0.38637956976890564, 0.19386567175388336], [-0.5519170761108398, 0.04553629457950592, 0.3685985803604126, 0.5233274102210999, 0.09708358347415924, 0.08774503320455551, 0.09231319278478622, -0.5902920365333557, 0.02028059959411621, -0.3244713544845581, -0.531655490398407, -0.12361082434654236, -0.11699036508798599, 0.36051154136657715, 0.3382819890975952, 0.118116594851017]], [[-0.6131729483604431, 1.042665719985962, -0.9878127574920654, -1.4503997564315796, 1.2758073806762695, -0.06766187399625778, -0.08012758940458298], [-1.6213297843933105, 2.1354217529296875, -0.5136229991912842, -0.008546731434762478, 0.04175635054707527, 0.0089699262753129, 0.006468431558459997], [-1.8788689374923706, 1.74382483959198, 0.1795995980501175, 0.010761965066194534, -0.08762853592634201, 0.03746316209435463, 0.03811230883002281], [-2.106184720993042, -1.0086556673049927, -0.09229404479265213, -0.03233974799513817, 0.016979746520519257, -0.03458326682448387, -0.033823251724243164], [-1.1879512071609497, -0.7064153552055359, 1.3334879875183105, 0.6131073832511902, -0.07312951236963272, -0.015659069642424583, -0.003249865025281906], [2.0344481468200684, 0.3456019163131714, 0.3918653428554535, 0.6817359328269958, 0.38528355956077576, -0.21116958558559418, -0.20629408955574036], [-0.6419390439987183, 0.43378040194511414, 0.1296912580728531, 0.8670538663864136, 0.6195093393325806, 0.010106219910085201, 0.009371239691972733], [-2.4891538619995117, 0.7302676439285278, 0.08472602069377899, 0.018417024984955788, 0.006847568787634373, -0.012107997201383114, -0.01189256738871336], [0.16779683530330658, 0.007576405070722103, -0.19989323616027832, -0.4957245886325836, -1.5527186393737793, -0.40805068612098694, -0.40923675894737244], [0.6068794131278992, 0.4758838415145874, 0.7853480577468872, -0.9491690993309021, 1.6381876468658447, 0.02502322383224964, 0.03379805386066437], [-1.2593495845794678, 1.5981526374816895, 0.15223172307014465, 0.7786002159118652, -0.36290672421455383, -0.19010896980762482, -0.18560823798179626], [-0.8336120843887329, -3.0728759765625, -0.21914322674274445, 0.03613165766000748, 0.11172590404748917, -0.035019468516111374, -0.034984711557626724], [0.9809038043022156, 1.9615412950515747, 1.2917543649673462, -0.7816441655158997, -1.8759944438934326, -0.010897133499383926, 0.0038540102541446686], [1.1782748699188232, 1.0285207033157349, -1.0208791494369507, 1.298193097114563, 0.5060869455337524, 0.006204109638929367, -0.005144578870385885], [1.3901711702346802, 0.3387073278427124, -0.9558954834938049, -0.2491409033536911, -0.5862897038459778, 0.24908655881881714, 0.23781077563762665], [0.016912322491407394, 0.780665934085846, -0.03519682213664055, -0.06717146933078766, -0.1673508584499359, -0.07310020923614502, -0.07397642731666565]]]}